<?xml version="1.0" encoding="ISO-8859-1"?>
<smile version="1.0" id="Network5" numsamples="1000" discsamples="10000">
	<nodes>
		<cpt id="Age">
			<state id="State0" />
			<state id="State1" />
			<state id="State2" />
			<state id="State3" />
			<probabilities>0.1213658553700042 0.5808957190144947 0.274626729227932 0.02311169638756913</probabilities>
		</cpt>
		<cpt id="KPS">
			<state id="State0" />
			<state id="State1" />
			<state id="State2" />
			<state id="State3" />
			<state id="State4" />
			<state id="State5" />
			<state id="State6" />
			<parents>Age</parents>
			<probabilities>0.006699411943866014 1.888078797352412e-015 0.04651162790697674 0.001019112553512685 0.6511627906976745 0.01553728945610779 0.2790697674418605 0.0007167346635466564 0.03465463327154634 0.1338060049273704 0.01063407571272011 0.6534653465346535 0.008273455545837949 0.1584497493443251 0.01112477928431534 0.06264465989535289 0.3550422194683419 0.01417061525003678 0.4584703997991283 0.01521399296949139 0.08333333333333333 0.1111111116361324 5.250213234260377e-010 0.3497956504654662 0.01892976457103019 0.4444444449694657 0.07571902730786267 5.250213234260377e-010</probabilities>
		</cpt>
		<cpt id="Gene">
			<state id="State0" />
			<state id="State1" />
			<probabilities>0.2701222640409221 0.7298777359590779</probabilities>
		</cpt>
		<cpt id="Survival">
			<state id="State0" />
			<state id="State1" />
			<parents>Age KPS Gene</parents>
			<probabilities>0.0001775568181818182 0.9998224431818181 1.298998212578459e-006 0.9999987010017875 0.5 0.5 0.5 0.5 0.75 0.25 0.25 0.75 0.96875 0.03125 0.99609375 0.00390625 0.025 0.9750000000000001 0.25 0.75 0.1999981489275471 0.8000018510724529 6.773255088112575e-009 0.9999999932267449 0.0625 0.9375 0.08333333333333333 0.9166666666666666 0.264071630854528 0.735928369145472 0.4584547189565805 0.5415452810434195 0.484375 0.515625 0.9285714285714285 0.07142857142857143 0.1673458721088436 0.8326541278911566 0.4965277777777777 0.5034722222222222 0.5435875096777841 0.4564124903222159 0.0320020608 0.9679979392 0.4375 0.5625 0.3227272727272727 0.6772727272727273 0.6337209302326686 0.3662790697673314 0.4999999716682105 0.5000000283317896 0.3928571428571429 0.6071428571428571 0.2220775462962963 0.7779224537037036 0.5851838885925248 0.4148161114074752 0.015625 0.984375 0.381103515625 0.618896484375 0.8928571428571428 0.1071428571428571 0.6132478384957046 0.3867521615042954 0.8480609232420827 0.1519390767579174 0.9443536682321834 0.05564633176781676 0.5919191316887285 0.4080808683112716 0.3970588235294117 0.6029411764705882 0.6550377155172413 0.3449622844827586 0.6499999993356731 0.3500000006643269 0.2000000057525413 0.7999999942474587 0.25 0.75 0.5625 0.4375 0.5 0.5 0.75 0.25 0.5 0.5 0.5 0.5 0.9938271604938271 0.006172839506172839 0.875 0.125 0.998046875 0.001953125 0.875 0.125 0.25 0.75 0.625 0.375 0.6666259765625 0.3333740234375 0.0078125 0.9921875 0.5 0.5 0.5 0.5</probabilities>
		</cpt>
	</nodes>
	<extensions>
		<genie version="1.0" app="GeNIe 2.0.5079.0" name="Network5" faultnameformat="nodestate">
			<node id="Age">
				<name>age_at_initial_pathologic_diagnosis</name>
				<interior color="e5f6f7" />
				<outline color="000080" />
				<font color="000000" name="Arial" size="8" />
				<position>227 52 275 82</position>
				<barchart active="true" width="242" height="64" />
			</node>
			<node id="KPS">
				<name>karnofsky_performance_score</name>
				<interior color="e5f6f7" />
				<outline color="000080" />
				<font color="000000" name="Arial" size="8" />
				<position>105 237 146 262</position>
				<barchart active="true" width="197" height="144" />
			</node>
			<node id="Gene">
				<name>metagene_score</name>
				<interior color="e5f6f7" />
				<outline color="000080" />
				<font color="000000" name="Arial" size="8" />
				<position>323 399 411 454</position>
				<barchart active="true" width="128" height="64" />
			</node>
			<node id="Survival">
				<name>survived_12_months</name>
				<interior color="e5f6f7" />
				<outline color="000080" />
				<font color="000000" name="Arial" size="8" />
				<position>314 217 415 280</position>
				<barchart active="true" width="131" height="64" />
			</node>
			
		</genie>
	</extensions>
</smile>
